digraph Tree {
node [shape=box, style="filled, rounded", color="black", fontname="helvetica"] ;
edge [fontname="helvetica"] ;
0 [label="petal width (cm) <= 0.75\ngini = 0.67\nsamples = 95\nvalue = [49, 48, 53]\nclass = virginica", fillcolor="#faf7fe"] ;
1 [label="gini = 0.0\nsamples = 31\nvalue = [49, 0, 0]\nclass = setosa", fillcolor="#e58139"] ;
0 -> 1 [labeldistance=2.5, labelangle=45, headlabel="True"] ;
2 [label="sepal length (cm) <= 6.45\ngini = 0.5\nsamples = 64\nvalue = [0, 48, 53]\nclass = virginica", fillcolor="#f3ecfd"] ;
0 -> 2 [labeldistance=2.5, labelangle=-45, headlabel="False"] ;
3 [label="petal length (cm) <= 4.85\ngini = 0.48\nsamples = 39\nvalue = [0, 39, 25]\nclass = versicolor", fillcolor="#b8f6d2"] ;
2 -> 3 ;
4 [label="sepal length (cm) <= 5.15\ngini = 0.05\nsamples = 24\nvalue = [0, 36, 1]\nclass = versicolor", fillcolor="#3ee684"] ;
3 -> 4 ;
5 [label="petal length (cm) <= 3.9\ngini = 0.5\nsamples = 2\nvalue = [0, 1, 1]\nclass = versicolor", fillcolor="#ffffff"] ;
4 -> 5 ;
6 [label="gini = 0.0\nsamples = 1\nvalue = [0, 1, 0]\nclass = versicolor", fillcolor="#39e581"] ;
5 -> 6 ;
7 [label="gini = 0.0\nsamples = 1\nvalue = [0, 0, 1]\nclass = virginica", fillcolor="#8139e5"] ;
5 -> 7 ;
8 [label="gini = 0.0\nsamples = 22\nvalue = [0, 35, 0]\nclass = versicolor", fillcolor="#39e581"] ;
4 -> 8 ;
9 [label="sepal width (cm) <= 2.55\ngini = 0.2\nsamples = 15\nvalue = [0, 3, 24]\nclass = virginica", fillcolor="#9152e8"] ;
3 -> 9 ;
10 [label="petal width (cm) <= 1.7\ngini = 0.49\nsamples = 3\nvalue = [0, 3, 4]\nclass = virginica", fillcolor="#e0cef8"] ;
9 -> 10 ;
11 [label="gini = 0.0\nsamples = 1\nvalue = [0, 3, 0]\nclass = versicolor", fillcolor="#39e581"] ;
10 -> 11 ;
12 [label="gini = 0.0\nsamples = 2\nvalue = [0, 0, 4]\nclass = virginica", fillcolor="#8139e5"] ;
10 -> 12 ;
13 [label="gini = 0.0\nsamples = 12\nvalue = [0, 0, 20]\nclass = virginica", fillcolor="#8139e5"] ;
9 -> 13 ;
14 [label="sepal width (cm) <= 3.15\ngini = 0.37\nsamples = 25\nvalue = [0, 9, 28]\nclass = virginica", fillcolor="#aa79ed"] ;
2 -> 14 ;
15 [label="petal length (cm) <= 5.05\ngini = 0.46\nsamples = 17\nvalue = [0, 9, 16]\nclass = virginica", fillcolor="#c8a8f4"] ;
14 -> 15 ;
16 [label="gini = 0.0\nsamples = 6\nvalue = [0, 9, 0]\nclass = versicolor", fillcolor="#39e581"] ;
15 -> 16 ;
17 [label="gini = 0.0\nsamples = 11\nvalue = [0, 0, 16]\nclass = virginica", fillcolor="#8139e5"] ;
15 -> 17 ;
18 [label="gini = 0.0\nsamples = 8\nvalue = [0, 0, 12]\nclass = virginica", fillcolor="#8139e5"] ;
14 -> 18 ;
}